<Nnet> 
<AffineTransform> 10 10 
<LearnRateCoef> 1 <BiasLearnRateCoef> 1 <MaxNorm> 0  [
  0.3776942 -0.09397008 -0.5317047 0.01641844 0.009443336 0.0143694 -0.08215332 -0.08967699 -0.09822258 -0.05736718 
  0.483644 -0.2701539 -0.100508 0.3978429 0.0250832 -0.2579964 0.130026 0.7798399 0.4412996 0.1211987 
  0.221355 -0.05900222 0.2671971 0.1439607 0.07490622 -0.09638092 0.2837563 -0.208687 0.2829459 -0.08312082 
  0.004558725 -0.2259351 -0.2144258 0.3438088 -0.1281277 -0.4970351 0.1430981 -0.0108891 0.5273966 -0.1558691 
  -0.1374365 -0.2436753 -0.3800771 0.2606943 -0.0664598 -0.663083 -0.06872895 0.6396306 -0.2769215 0.8327418 
  0.07506951 0.4050077 -0.3194759 -0.5513664 -0.09950594 -0.1486092 -0.6434172 -0.1139008 0.07984303 -0.4546486 
  -0.1993653 -0.0114589 0.4983991 -0.4396111 -0.1898197 0.3235346 0.3128521 0.9309818 0.03098669 0.2182211 
  -0.04048263 0.4971592 0.1001952 0.0876084 0.5155151 0.4348153 -0.1303634 -0.3161568 -0.08695351 0.431989 
  -0.08203789 -0.1292412 0.09261453 0.2393145 0.06153248 -0.1022023 0.2359323 -0.2922528 0.4632744 -0.5642266 
  -0.8444152 -0.3009694 0.2215033 0.3195794 -0.03262616 0.2045 -1.22243 -0.1007321 -0.01037708 0.1886114 ]
 [ -2.072087 -1.310509 -2.075091 -3.916212 -0.7729218 -0.2711775 -2.400076 -3.591832 -0.02864766 -1.706175 ]
<Sigmoid> 10 10 
<AffineTransform> 5 10 
<LearnRateCoef> 1 <BiasLearnRateCoef> 0.1 <MaxNorm> 0  [
  1.162432 -0.6580529 0.8549734 -1.773452 3.607503 -0.2796009 0.500286 -0.4802949 -1.328477 -0.5643014 
  1.214852 0.1364047 0.8594405 -0.3135591 0.5625819 -2.723454 0.1476354 -0.7365998 0.200808 3.059619 
  2.236472 1.742915 0.7776151 -0.8781571 0.9087745 0.9369577 -0.2917355 2.416671 1.223418 -0.7457914 
  -2.139827 0.5459346 -0.0591094 -0.2265261 -0.5702448 1.027297 1.470786 -0.06343057 1.296711 -0.6045448 
  0.4716592 0.8817838 0.6267865 -1.106397 -2.96747 0.8543544 -2.336342 2.051553 -0.2441458 0.7775704 ]
 [ 0 0 0 0 0 ]
<Softmax> 5 5 
</Nnet> 
